Language model created by QuickLM on Mon May  6 07:32:19 EDT 2019
Copyright (c) 1996-2010 Carnegie Mellon University and Alexander I. Rudnicky

The model is in standard ARPA format, designed by Doug Paul while he was at MITRE.

The code that was used to produce this language model is available in Open Source.
Please visit http://www.speech.cs.cmu.edu/tools/ for more information

The (fixed) discount mass is 0.5. The backoffs are computed using the ratio method.
This model based on a corpus of 76 sentences and 105 words

\data\
ngram 1=105
ngram 2=185
ngram 3=123

\1-grams:
-0.8611 </s> -0.3010
-0.8611 <s> -0.2303
-2.4409 A -0.2995
-2.7419 ACTIVATE -0.2367
-2.7419 AFTERNOON -0.2367
-2.4409 ALLAN -0.2367
-2.7419 AM -0.3002
-2.7419 AVENGERS -0.2367
-2.7419 BACK -0.2367
-2.7419 BACKWARD -0.2367
-2.7419 BROWSER -0.2367
-2.7419 CLOSE -0.2367
-2.7419 COLOMBO -0.2367
-2.7419 COMPUTER -0.2367
-2.7419 CREATE -0.2367
-2.7419 DISK -0.3002
-2.4409 DOWN -0.2367
-2.7419 ENOUGH -0.2367
-2.7419 EVENING -0.2367
-2.7419 EXIT -0.2995
-2.7419 F -0.2367
-2.7419 FAST -0.2995
-2.7419 FEMALE -0.2367
-2.7419 FILE -0.3002
-2.7419 FILM -0.3002
-2.7419 FIND -0.2367
-2.7419 FLASH -0.2367
-2.7419 FOLDER -0.2367
-2.4409 FOR -0.2330
-2.4409 FORWARD -0.2367
-2.4409 FULLSCREEN -0.2367
-2.7419 GALLE -0.2367
-2.2648 GO -0.2963
-2.7419 GOOD -0.2367
-2.7419 HELLO -0.2995
-2.7419 HEY -0.2367
-2.7419 HIBERNATE -0.2367
-2.7419 HOW -0.3002
-2.7419 I -0.3002
-2.2648 IN -0.2987
-2.7419 INNA -0.2367
-2.4409 IS -0.2358
-2.7419 JARVIS -0.2367
-2.7419 JOKE -0.2367
-2.7419 KAVEEN -0.2367
-2.7419 KNOWLEDGE -0.2367
-2.7419 LOCAL -0.3002
-2.7419 LUCK -0.2367
-2.7419 MALE -0.2367
-2.7419 MANAGER -0.2367
-2.1399 ME -0.2321
-2.7419 MEDIA -0.2367
-2.7419 MODE -0.2367
-2.7419 MORNING -0.2367
-2.7419 MUSIC -0.2367
-2.7419 MY -0.3002
-2.7419 NAME -0.2995
-2.7419 NEW -0.2995
-2.7419 NEXT -0.2367
-2.7419 NIGHT -0.2367
-2.7419 NO -0.2367
-2.7419 NORMAL -0.3002
-2.7419 NOTEPAD -0.2367
-2.7419 OLD -0.2367
-2.7419 ON -0.2995
-2.7419 ONE -0.2367
-2.7419 OPEN -0.3002
-2.7419 OUT -0.2367
-2.7419 PARTY -0.3002
-2.7419 PAUSE -0.2367
-2.7419 PHOTOSHOP -0.2367
-2.7419 PLAY -0.2367
-2.7419 PLAYER -0.2367
-2.7419 PLEASE -0.2367
-2.4409 PROJECT -0.2367
-2.7419 PUT -0.3002
-2.7419 REPORT -0.2367
-2.7419 SCREEN -0.2367
-2.7419 SEARCH -0.3002
-2.7419 SHUTDOWN -0.2367
-2.7419 SIGN -0.3002
-2.7419 SING -0.2995
-2.7419 SLEEP -0.2367
-2.7419 SOCIAL -0.2367
-2.7419 SONG -0.2995
-2.7419 SRILANKA -0.2367
-2.7419 STOP -0.2367
-2.4409 SYSTEM -0.2995
-2.4409 TELL -0.2979
-2.4409 TIME -0.2358
-2.7419 TO -0.2367
-2.7419 TRACK -0.2367
-2.7419 TWENTY -0.3002
-2.7419 TWO -0.2367
-2.2648 UP -0.2367
-2.7419 VLC -0.3002
-2.4409 VOLUME -0.2971
-2.7419 WALKER -0.2367
-2.7419 WEATHER -0.3002
-2.7419 WHAT -0.2995
-2.7419 WISH -0.2979
-2.7419 YEARS -0.3002
-2.7419 YES -0.2367
-2.7419 YOU -0.2367
-2.7419 YOUTUBE -0.2367

\2-grams:
-2.1818 <s> ACTIVATE 0.0000
-2.1818 <s> AFTERNOON 0.0000
-2.1818 <s> ALLAN 0.0000
-2.1818 <s> AVENGERS 0.0000
-2.1818 <s> BACKWARD 0.0000
-2.1818 <s> CLOSE 0.0000
-2.1818 <s> CREATE 0.0000
-2.1818 <s> ENOUGH 0.0000
-2.1818 <s> EVENING 0.0000
-2.1818 <s> EXIT 0.0000
-2.1818 <s> FAST 0.0000
-2.1818 <s> FEMALE 0.0000
-2.1818 <s> FILE 0.0000
-2.1818 <s> FILM 0.0000
-2.1818 <s> FLASH 0.0000
-2.1818 <s> FOR -0.1761
-2.1818 <s> FORWARD 0.0000
-1.7047 <s> GO 0.0000
-2.1818 <s> GOOD 0.0000
-2.1818 <s> HELLO 0.0000
-2.1818 <s> HEY 0.0000
-2.1818 <s> HOW 0.0000
-2.1818 <s> I 0.0000
-1.7047 <s> IN 0.0000
-2.1818 <s> INNA 0.0000
-2.1818 <s> JARVIS 0.0000
-2.1818 <s> KNOWLEDGE 0.0000
-2.1818 <s> LOCAL 0.0000
-2.1818 <s> MALE 0.0000
-2.1818 <s> MEDIA 0.0000
-2.1818 <s> MORNING 0.0000
-2.1818 <s> MUSIC 0.0000
-2.1818 <s> MY 0.0000
-2.1818 <s> NAME 0.0000
-2.1818 <s> NEW 0.0000
-2.1818 <s> NEXT 0.0000
-2.1818 <s> NIGHT 0.0000
-2.1818 <s> NO 0.0000
-2.1818 <s> NORMAL 0.0000
-2.1818 <s> NOTEPAD 0.0000
-2.1818 <s> OPEN 0.0000
-2.1818 <s> PARTY 0.0000
-2.1818 <s> PAUSE 0.0000
-2.1818 <s> PHOTOSHOP 0.0000
-2.1818 <s> PLAY 0.0000
-2.1818 <s> PROJECT 0.0000
-2.1818 <s> PUT 0.0000
-2.1818 <s> SEARCH 0.0000
-2.1818 <s> SHUTDOWN 0.0000
-2.1818 <s> SING 0.0000
-2.1818 <s> SLEEP 0.0000
-2.1818 <s> SOCIAL 0.0000
-2.1818 <s> STOP 0.0000
-1.8808 <s> SYSTEM 0.0000
-1.8808 <s> TELL 0.0000
-2.1818 <s> TIME -0.1761
-2.1818 <s> TRACK 0.0000
-2.1818 <s> TWENTY 0.0000
-2.1818 <s> TWO 0.0000
-2.1818 <s> UP 0.0000
-2.1818 <s> VLC 0.0000
-1.8808 <s> VOLUME 0.0000
-2.1818 <s> WALKER 0.0000
-2.1818 <s> WEATHER 0.0000
-2.1818 <s> WHAT 0.0000
-2.1818 <s> WISH 0.0000
-2.1818 <s> YES 0.0000
-2.1818 <s> YOU 0.0000
-2.1818 <s> YOUTUBE 0.0000
-0.6021 A JOKE 0.0000
-0.6021 A SONG 0.0000
-0.3010 ACTIVATE </s> -0.3010
-0.3010 AFTERNOON </s> -0.3010
-0.3010 ALLAN </s> -0.3010
-0.3010 AM YEARS 0.0000
-0.3010 AVENGERS </s> -0.3010
-0.3010 BACK </s> -0.3010
-0.3010 BACKWARD </s> -0.3010
-0.3010 BROWSER </s> -0.3010
-0.3010 CLOSE </s> -0.3010
-0.3010 COLOMBO </s> -0.3010
-0.3010 COMPUTER </s> -0.3010
-0.3010 CREATE </s> -0.3010
-0.3010 DISK F 0.0000
-0.3010 DOWN </s> -0.3010
-0.3010 ENOUGH </s> -0.3010
-0.3010 EVENING </s> -0.3010
-0.3010 EXIT FULLSCREEN 0.0000
-0.3010 F </s> -0.3010
-0.3010 FAST FORWARD 0.0000
-0.3010 FEMALE </s> -0.3010
-0.3010 FILE MANAGER 0.0000
-0.3010 FILM FOLDER 0.0000
-0.3010 FIND </s> -0.3010
-0.3010 FLASH </s> -0.3010
-0.3010 FOLDER </s> -0.3010
-0.6021 FOR </s> -0.3010
-0.6021 FOR ME -0.2430
-0.3010 FORWARD </s> -0.3010
-0.3010 FULLSCREEN </s> -0.3010
-0.3010 GALLE </s> -0.3010
-0.7782 GO BACK 0.0000
-0.7782 GO DOWN 0.0000
-0.7782 GO UP 0.0000
-0.3010 GOOD </s> -0.3010
-0.3010 HELLO ALLAN 0.0000
-0.3010 HEY </s> -0.3010
-0.3010 HIBERNATE </s> -0.3010
-0.3010 HOW TO 0.0000
-0.3010 I AM 0.0000
-0.7782 IN COLOMBO 0.0000
-0.7782 IN GALLE 0.0000
-0.7782 IN SRILANKA 0.0000
-0.3010 INNA </s> -0.3010
-0.6021 IS </s> -0.3010
-0.6021 IS KAVEEN 0.0000
-0.3010 JARVIS </s> -0.3010
-0.3010 JOKE </s> -0.3010
-0.3010 KAVEEN </s> -0.3010
-0.3010 KNOWLEDGE </s> -0.3010
-0.3010 LOCAL DISK 0.0000
-0.3010 LUCK </s> -0.3010
-0.3010 MALE </s> -0.3010
-0.3010 MANAGER </s> -0.3010
-0.9031 ME </s> -0.3010
-0.9031 ME A -0.1761
-0.9031 ME LUCK 0.0000
-0.9031 ME TIME -0.1761
-0.3010 MEDIA </s> -0.3010
-0.3010 MODE </s> -0.3010
-0.3010 MORNING </s> -0.3010
-0.3010 MUSIC </s> -0.3010
-0.3010 MY COMPUTER 0.0000
-0.3010 NAME IS -0.1761
-0.3010 NEW PROJECT 0.0000
-0.3010 NEXT </s> -0.3010
-0.3010 NIGHT </s> -0.3010
-0.3010 NO </s> -0.3010
-0.3010 NORMAL SCREEN 0.0000
-0.3010 NOTEPAD </s> -0.3010
-0.3010 OLD </s> -0.3010
-0.3010 ON FULLSCREEN 0.0000
-0.3010 ONE </s> -0.3010
-0.3010 OPEN BROWSER 0.0000
-0.3010 OUT </s> -0.3010
-0.3010 PARTY MODE 0.0000
-0.3010 PAUSE </s> -0.3010
-0.3010 PHOTOSHOP </s> -0.3010
-0.3010 PLAY </s> -0.3010
-0.3010 PLAYER </s> -0.3010
-0.3010 PLEASE </s> -0.3010
-0.3010 PROJECT </s> -0.3010
-0.3010 PUT ON 0.0000
-0.3010 REPORT </s> -0.3010
-0.3010 SCREEN </s> -0.3010
-0.3010 SEARCH FIND 0.0000
-0.3010 SHUTDOWN </s> -0.3010
-0.3010 SIGN OUT 0.0000
-0.3010 SING A -0.1761
-0.3010 SLEEP </s> -0.3010
-0.3010 SOCIAL </s> -0.3010
-0.3010 SONG FOR -0.1761
-0.3010 SRILANKA </s> -0.3010
-0.3010 STOP </s> -0.3010
-0.6021 SYSTEM HIBERNATE 0.0000
-0.6021 SYSTEM SIGN 0.0000
-0.3010 TELL ME -0.1761
-0.6021 TIME </s> -0.3010
-0.6021 TIME PLEASE 0.0000
-0.3010 TO </s> -0.3010
-0.3010 TRACK </s> -0.3010
-0.3010 TWENTY ONE 0.0000
-0.3010 TWO </s> -0.3010
-0.3010 UP </s> -0.3010
-0.3010 VLC PLAYER 0.0000
-0.6021 VOLUME DOWN 0.0000
-0.6021 VOLUME UP 0.0000
-0.3010 WALKER </s> -0.3010
-0.3010 WEATHER REPORT 0.0000
-0.3010 WHAT IS -0.1761
-0.3010 WISH ME -0.2430
-0.3010 YEARS OLD 0.0000
-0.3010 YES </s> -0.3010
-0.3010 YOU </s> -0.3010
-0.3010 YOUTUBE </s> -0.3010

\3-grams:
-0.3010 <s> ACTIVATE </s>
-0.3010 <s> AFTERNOON </s>
-0.3010 <s> ALLAN </s>
-0.3010 <s> AVENGERS </s>
-0.3010 <s> BACKWARD </s>
-0.3010 <s> CLOSE </s>
-0.3010 <s> CREATE </s>
-0.3010 <s> ENOUGH </s>
-0.3010 <s> EVENING </s>
-0.3010 <s> EXIT FULLSCREEN
-0.3010 <s> FAST FORWARD
-0.3010 <s> FEMALE </s>
-0.3010 <s> FILE MANAGER
-0.3010 <s> FILM FOLDER
-0.3010 <s> FLASH </s>
-0.3010 <s> FOR </s>
-0.3010 <s> FORWARD </s>
-0.7782 <s> GO BACK
-0.7782 <s> GO DOWN
-0.7782 <s> GO UP
-0.3010 <s> GOOD </s>
-0.3010 <s> HELLO ALLAN
-0.3010 <s> HEY </s>
-0.3010 <s> HOW TO
-0.3010 <s> I AM
-0.7782 <s> IN COLOMBO
-0.7782 <s> IN GALLE
-0.7782 <s> IN SRILANKA
-0.3010 <s> INNA </s>
-0.3010 <s> JARVIS </s>
-0.3010 <s> KNOWLEDGE </s>
-0.3010 <s> LOCAL DISK
-0.3010 <s> MALE </s>
-0.3010 <s> MEDIA </s>
-0.3010 <s> MORNING </s>
-0.3010 <s> MUSIC </s>
-0.3010 <s> MY COMPUTER
-0.3010 <s> NAME IS
-0.3010 <s> NEW PROJECT
-0.3010 <s> NEXT </s>
-0.3010 <s> NIGHT </s>
-0.3010 <s> NO </s>
-0.3010 <s> NORMAL SCREEN
-0.3010 <s> NOTEPAD </s>
-0.3010 <s> OPEN BROWSER
-0.3010 <s> PARTY MODE
-0.3010 <s> PAUSE </s>
-0.3010 <s> PHOTOSHOP </s>
-0.3010 <s> PLAY </s>
-0.3010 <s> PROJECT </s>
-0.3010 <s> PUT ON
-0.3010 <s> SEARCH FIND
-0.3010 <s> SHUTDOWN </s>
-0.3010 <s> SING A
-0.3010 <s> SLEEP </s>
-0.3010 <s> SOCIAL </s>
-0.3010 <s> STOP </s>
-0.6021 <s> SYSTEM HIBERNATE
-0.6021 <s> SYSTEM SIGN
-0.3010 <s> TELL ME
-0.3010 <s> TIME PLEASE
-0.3010 <s> TRACK </s>
-0.3010 <s> TWENTY ONE
-0.3010 <s> TWO </s>
-0.3010 <s> UP </s>
-0.3010 <s> VLC PLAYER
-0.6021 <s> VOLUME DOWN
-0.6021 <s> VOLUME UP
-0.3010 <s> WALKER </s>
-0.3010 <s> WEATHER REPORT
-0.3010 <s> WHAT IS
-0.3010 <s> WISH ME
-0.3010 <s> YES </s>
-0.3010 <s> YOU </s>
-0.3010 <s> YOUTUBE </s>
-0.3010 A JOKE </s>
-0.3010 A SONG FOR
-0.3010 AM YEARS OLD
-0.3010 DISK F </s>
-0.3010 EXIT FULLSCREEN </s>
-0.3010 FAST FORWARD </s>
-0.3010 FILE MANAGER </s>
-0.3010 FILM FOLDER </s>
-0.3010 FOR ME </s>
-0.3010 GO BACK </s>
-0.3010 GO DOWN </s>
-0.3010 GO UP </s>
-0.3010 HELLO ALLAN </s>
-0.3010 HOW TO </s>
-0.3010 I AM YEARS
-0.3010 IN COLOMBO </s>
-0.3010 IN GALLE </s>
-0.3010 IN SRILANKA </s>
-0.3010 IS KAVEEN </s>
-0.3010 LOCAL DISK F
-0.3010 ME A JOKE
-0.3010 ME LUCK </s>
-0.3010 ME TIME </s>
-0.3010 MY COMPUTER </s>
-0.3010 NAME IS KAVEEN
-0.3010 NEW PROJECT </s>
-0.3010 NORMAL SCREEN </s>
-0.3010 ON FULLSCREEN </s>
-0.3010 OPEN BROWSER </s>
-0.3010 PARTY MODE </s>
-0.3010 PUT ON FULLSCREEN
-0.3010 SEARCH FIND </s>
-0.3010 SIGN OUT </s>
-0.3010 SING A SONG
-0.3010 SONG FOR ME
-0.3010 SYSTEM HIBERNATE </s>
-0.3010 SYSTEM SIGN OUT
-0.6021 TELL ME A
-0.6021 TELL ME TIME
-0.3010 TIME PLEASE </s>
-0.3010 TWENTY ONE </s>
-0.3010 VLC PLAYER </s>
-0.3010 VOLUME DOWN </s>
-0.3010 VOLUME UP </s>
-0.3010 WEATHER REPORT </s>
-0.3010 WHAT IS </s>
-0.3010 WISH ME LUCK
-0.3010 YEARS OLD </s>

\end\
