Language model created by QuickLM on Tue Jul 16 01:09:35 EDT 2019
Copyright (c) 1996-2010 Carnegie Mellon University and Alexander I. Rudnicky

The model is in standard ARPA format, designed by Doug Paul while he was at MITRE.

The code that was used to produce this language model is available in Open Source.
Please visit http://www.speech.cs.cmu.edu/tools/ for more information

The (fixed) discount mass is 0.5. The backoffs are computed using the ratio method.
This model based on a corpus of 105 sentences and 143 words

\data\
ngram 1=143
ngram 2=261
ngram 3=195

\1-grams:
-0.9021 </s> -0.3010
-0.9021 <s> -0.2309
-2.2243 A -0.2969
-2.9232 ACTIVATE -0.2429
-2.9232 AFTERNOON -0.2429
-2.1451 ALLAN -0.2387
-2.3212 AM -0.2979
-2.9232 AVENGERS -0.2429
-2.9232 BACK -0.2429
-2.9232 BACKWARD -0.2429
-2.4461 BETTER -0.2429
-2.3212 BOORING -0.2429
-2.9232 BROWSER -0.2429
-2.9232 CLOSE -0.2429
-2.9232 COLOMBO -0.2429
-2.6222 COMPUTER -0.2429
-2.9232 CREATE -0.2429
-2.9232 DADDY -0.2979
-2.9232 DISK -0.3005
-2.4461 DOWN -0.2417
-2.9232 EIGHT -0.3005
-2.9232 ENDGAME -0.2429
-2.9232 ENOUGH -0.2429
-2.6222 ERASE -0.2429
-2.9232 EVENING -0.2429
-2.9232 EXIT -0.3000
-2.9232 EXPLORER -0.2429
-2.9232 F -0.2429
-2.9232 FAST -0.3000
-2.9232 FEMALE -0.2429
-2.6222 FILE -0.3000
-2.4461 FILM -0.2953
-2.9232 FIND -0.2429
-2.9232 FIVE -0.3005
-2.9232 FLASH -0.2429
-2.9232 FOLDER -0.2429
-2.3212 FOR -0.2393
-2.6222 FORWARD -0.2429
-2.9232 FOUR -0.3005
-2.6222 FULLSCREEN -0.2429
-2.9232 GALLE -0.2429
-2.4461 GO -0.2969
-2.9232 GOOD -0.2429
-2.9232 HARRY -0.3005
-2.9232 HELLO -0.2979
-2.9232 HEY -0.2429
-2.9232 HIBERNATE -0.2429
-2.9232 HOME -0.2429
-2.9232 HOW -0.3000
-2.3212 I -0.2990
-2.6222 I'M -0.2990
-2.4461 IN -0.2995
-2.9232 INNA -0.2429
-2.9232 INTELLIJ -0.2429
-2.9232 IRON -0.3005
-2.1451 IS -0.2399
-2.9232 JARVIS -0.2429
-2.9232 JOKE -0.2429
-2.9232 KAVEEN -0.2429
-2.9232 KNOWLEDGE -0.2429
-2.9232 LINE -0.2429
-2.9232 LOCAL -0.3005
-2.9232 LUCK -0.2429
-2.9232 MALE -0.2429
-2.9232 MAN -0.2429
-2.9232 MANAGER -0.2429
-2.9232 MARVEL -0.3005
-2.1451 ME -0.2381
-2.9232 MEDIA -0.2429
-2.9232 MODE -0.2429
-2.9232 MORNING -0.2429
-2.9232 MOVIE -0.2979
-2.9232 MOVIES -0.2429
-2.9232 MUSIC -0.2429
-2.6222 MY -0.3000
-2.9232 NAME -0.2979
-2.9232 NEW -0.3000
-2.6222 NEXT -0.2423
-2.9232 NIGHT -0.2429
-2.9232 NINE -0.3005
-2.4461 NO -0.2399
-2.9232 NORMAL -0.3005
-2.9232 NOTE -0.3000
-2.9232 NOTEPAD -0.2429
-2.9232 OLD -0.2429
-2.9232 ON -0.3000
-2.9232 ONE -0.2429
-2.3212 OPEN -0.2984
-2.9232 OUT -0.2429
-2.9232 PARTY -0.3005
-2.9232 PAUSE -0.2429
-2.9232 PHOTO -0.2429
-2.9232 PHOTOSHOP -0.2429
-2.4461 PLAY -0.2399
-2.9232 PLAYER -0.2429
-2.9232 PLEASE -0.2429
-2.9232 POTTER -0.2429
-2.6222 PROJECT -0.2429
-2.9232 PUT -0.3005
-2.9232 REPORT -0.2429
-2.9232 SCREEN -0.2429
-2.9232 SEARCH -0.3005
-2.9232 SEVEN -0.3005
-2.9232 SHUTDOWN -0.2429
-2.9232 SIGN -0.3005
-2.9232 SING -0.2984
-2.9232 SIX -0.3005
-2.9232 SLEEP -0.2429
-2.9232 SOCIAL -0.2429
-2.4461 SONG -0.2958
-2.9232 SRILANKA -0.2429
-2.9232 START -0.3005
-2.9232 STOP -0.2429
-2.9232 SUBLIME -0.3005
-2.6222 SYSTEM -0.3000
-2.9232 TAKE -0.2984
-2.6222 TELL -0.2979
-2.9232 TEN -0.3005
-2.9232 TEXT -0.2429
-2.9232 THE -0.2429
-2.6222 THIS -0.2429
-2.9232 THREE -0.3005
-2.6222 TIME -0.2423
-2.6222 TO -0.2423
-2.9232 TONY -0.2429
-2.9232 TRACK -0.2429
-2.9232 TWENTY -0.3005
-2.9232 TWO -0.2429
-2.9232 TYPING -0.2429
-2.3212 UP -0.2393
-2.9232 VLC -0.3005
-2.6222 VOLUME -0.2974
-2.9232 WAKE -0.2990
-2.9232 WALKER -0.2429
-2.9232 WEATHER -0.3005
-2.9232 WHAT -0.2979
-2.9232 WISH -0.2979
-2.9232 WRITE -0.2995
-2.9232 YEARS -0.3005
-2.9232 YES -0.2429
-2.9232 YOU -0.2429
-2.9232 YOUTUBE -0.2429
-2.9232 ZERO -0.2429

\2-grams:
-2.3222 <s> ACTIVATE 0.0000
-2.3222 <s> AFTERNOON 0.0000
-1.7202 <s> ALLAN 0.0000
-2.3222 <s> AVENGERS 0.0000
-2.3222 <s> BACKWARD 0.0000
-2.3222 <s> CLOSE 0.0000
-2.3222 <s> CREATE 0.0000
-2.3222 <s> DADDY 0.0000
-2.3222 <s> ENDGAME 0.0000
-2.3222 <s> ENOUGH 0.0000
-2.3222 <s> ERASE 0.0000
-2.3222 <s> EVENING 0.0000
-2.3222 <s> EXIT 0.0000
-2.3222 <s> FAST 0.0000
-2.3222 <s> FEMALE 0.0000
-2.0212 <s> FILE 0.0000
-2.0212 <s> FILM -0.1249
-2.3222 <s> FLASH 0.0000
-2.3222 <s> FOR -0.2430
-2.3222 <s> FORWARD 0.0000
-1.8451 <s> GO 0.0000
-2.3222 <s> GOOD 0.0000
-2.3222 <s> HARRY 0.0000
-2.3222 <s> HELLO 0.0000
-2.3222 <s> HEY 0.0000
-2.3222 <s> HOW 0.0000
-1.8451 <s> I 0.0000
-2.3222 <s> I'M 0.0000
-1.8451 <s> IN 0.0000
-2.3222 <s> INNA 0.0000
-2.3222 <s> JARVIS 0.0000
-2.3222 <s> KNOWLEDGE 0.0000
-2.3222 <s> LOCAL 0.0000
-2.3222 <s> MALE 0.0000
-2.3222 <s> MARVEL 0.0000
-2.3222 <s> MEDIA 0.0000
-2.3222 <s> MORNING 0.0000
-2.3222 <s> MOVIE 0.0000
-2.3222 <s> MUSIC 0.0000
-2.3222 <s> MY 0.0000
-2.3222 <s> NAME 0.0000
-2.3222 <s> NEW 0.0000
-2.0212 <s> NEXT 0.0000
-2.3222 <s> NIGHT 0.0000
-2.0212 <s> NO -0.1249
-2.3222 <s> NORMAL 0.0000
-2.3222 <s> NOTE 0.0000
-2.3222 <s> NOTEPAD 0.0000
-1.7202 <s> OPEN 0.0000
-2.3222 <s> PARTY 0.0000
-2.3222 <s> PAUSE 0.0000
-2.3222 <s> PHOTOSHOP 0.0000
-1.8451 <s> PLAY 0.0000
-2.3222 <s> PROJECT 0.0000
-2.3222 <s> PUT 0.0000
-2.3222 <s> SEARCH 0.0000
-2.3222 <s> SHUTDOWN 0.0000
-2.3222 <s> SING 0.0000
-2.3222 <s> SLEEP 0.0000
-2.3222 <s> SOCIAL 0.0000
-2.3222 <s> SONG -0.2218
-2.3222 <s> START 0.0000
-2.3222 <s> STOP 0.0000
-2.0212 <s> SYSTEM 0.0000
-2.0212 <s> TELL 0.0000
-2.3222 <s> THREE 0.0000
-2.3222 <s> TIME -0.1761
-2.3222 <s> TO -0.1761
-2.3222 <s> TONY 0.0000
-2.3222 <s> TRACK 0.0000
-2.3222 <s> TWENTY 0.0000
-2.3222 <s> TWO 0.0000
-2.3222 <s> UP -0.0969
-2.3222 <s> VLC 0.0000
-2.0212 <s> VOLUME 0.0000
-2.3222 <s> WAKE 0.0000
-2.3222 <s> WALKER 0.0000
-2.3222 <s> WEATHER 0.0000
-2.3222 <s> WHAT 0.0000
-2.3222 <s> WISH 0.0000
-2.3222 <s> WRITE 0.0000
-2.3222 <s> YES 0.0000
-2.3222 <s> YOU 0.0000
-2.3222 <s> YOUTUBE 0.0000
-1.0000 A FILM -0.2218
-1.0000 A JOKE 0.0000
-1.0000 A PHOTO 0.0000
-0.6990 A SONG -0.1249
-0.3010 ACTIVATE </s> -0.3010
-0.3010 AFTERNOON </s> -0.3010
-0.6021 ALLAN </s> -0.3010
-1.0792 ALLAN I 0.0000
-1.0792 ALLAN I'M 0.0000
-1.0792 ALLAN TAKE 0.0000
-0.6021 AM BOORING 0.0000
-0.9031 AM IRON 0.0000
-0.9031 AM YEARS 0.0000
-0.3010 AVENGERS </s> -0.3010
-0.3010 BACK </s> -0.3010
-0.3010 BACKWARD </s> -0.3010
-0.3010 BETTER </s> -0.3010
-0.3010 BOORING </s> -0.3010
-0.3010 BROWSER </s> -0.3010
-0.3010 CLOSE </s> -0.3010
-0.3010 COLOMBO </s> -0.3010
-0.3010 COMPUTER </s> -0.3010
-0.3010 CREATE </s> -0.3010
-0.3010 DADDY IS -0.2632
-0.3010 DISK F 0.0000
-0.4771 DOWN </s> -0.3010
-0.7782 DOWN THIS 0.0000
-0.3010 EIGHT NINE 0.0000
-0.3010 ENDGAME </s> -0.3010
-0.3010 ENOUGH </s> -0.3010
-0.3010 ERASE </s> -0.3010
-0.3010 EVENING </s> -0.3010
-0.3010 EXIT FULLSCREEN 0.0000
-0.3010 EXPLORER </s> -0.3010
-0.3010 F </s> -0.3010
-0.3010 FAST FORWARD 0.0000
-0.3010 FEMALE </s> -0.3010
-0.6021 FILE EXPLORER 0.0000
-0.6021 FILE MANAGER 0.0000
-0.7782 FILM FOLDER 0.0000
-0.7782 FILM FOR -0.0969
-0.7782 FILM IS -0.1761
-0.3010 FIND </s> -0.3010
-0.3010 FIVE SIX 0.0000
-0.3010 FLASH </s> -0.3010
-0.3010 FOLDER </s> -0.3010
-0.9031 FOR </s> -0.3010
-0.4260 FOR ME -0.1761
-0.3010 FORWARD </s> -0.3010
-0.3010 FOUR FIVE 0.0000
-0.3010 FULLSCREEN </s> -0.3010
-0.3010 GALLE </s> -0.3010
-0.7782 GO BACK 0.0000
-0.7782 GO DOWN -0.1249
-0.7782 GO UP -0.0969
-0.3010 GOOD </s> -0.3010
-0.3010 HARRY POTTER 0.0000
-0.3010 HELLO ALLAN -0.1761
-0.3010 HEY </s> -0.3010
-0.3010 HIBERNATE </s> -0.3010
-0.3010 HOME </s> -0.3010
-0.3010 HOW TO -0.1761
-0.3010 I AM 0.0000
-0.3010 I'M BOORING 0.0000
-0.7782 IN COLOMBO 0.0000
-0.7782 IN GALLE 0.0000
-0.7782 IN SRILANKA 0.0000
-0.3010 INNA </s> -0.3010
-0.3010 INTELLIJ </s> -0.3010
-0.3010 IRON MAN 0.0000
-1.0792 IS </s> -0.3010
-0.6021 IS BETTER 0.0000
-1.0792 IS HOME 0.0000
-1.0792 IS KAVEEN 0.0000
-0.3010 JARVIS </s> -0.3010
-0.3010 JOKE </s> -0.3010
-0.3010 KAVEEN </s> -0.3010
-0.3010 KNOWLEDGE </s> -0.3010
-0.3010 LINE </s> -0.3010
-0.3010 LOCAL DISK 0.0000
-0.3010 LUCK </s> -0.3010
-0.3010 MALE </s> -0.3010
-0.3010 MAN </s> -0.3010
-0.3010 MANAGER </s> -0.3010
-0.3010 MARVEL MOVIES 0.0000
-0.6021 ME </s> -0.3010
-1.0792 ME A -0.2553
-1.0792 ME LUCK 0.0000
-1.0792 ME TIME -0.1761
-0.3010 MEDIA </s> -0.3010
-0.3010 MODE </s> -0.3010
-0.3010 MORNING </s> -0.3010
-0.3010 MOVIE IS -0.1761
-0.3010 MOVIES </s> -0.3010
-0.3010 MUSIC </s> -0.3010
-0.3010 MY COMPUTER 0.0000
-0.3010 NAME IS -0.2632
-0.3010 NEW PROJECT 0.0000
-0.6021 NEXT </s> -0.3010
-0.6021 NEXT LINE 0.0000
-0.3010 NIGHT </s> -0.3010
-0.3010 NINE TEN 0.0000
-0.7782 NO </s> -0.3010
-0.7782 NO ERASE 0.0000
-0.7782 NO NO -0.2218
-0.3010 NORMAL SCREEN 0.0000
-0.3010 NOTE THIS 0.0000
-0.3010 NOTEPAD </s> -0.3010
-0.3010 OLD </s> -0.3010
-0.3010 ON FULLSCREEN 0.0000
-0.3010 ONE </s> -0.3010
-0.9031 OPEN BROWSER 0.0000
-0.9031 OPEN INTELLIJ 0.0000
-0.9031 OPEN MY 0.0000
-0.9031 OPEN SUBLIME 0.0000
-0.3010 OUT </s> -0.3010
-0.3010 PARTY MODE 0.0000
-0.3010 PAUSE </s> -0.3010
-0.3010 PHOTO </s> -0.3010
-0.3010 PHOTOSHOP </s> -0.3010
-0.7782 PLAY </s> -0.3010
-0.4771 PLAY A -0.1461
-0.3010 PLAYER </s> -0.3010
-0.3010 PLEASE </s> -0.3010
-0.3010 POTTER </s> -0.3010
-0.3010 PROJECT </s> -0.3010
-0.3010 PUT ON 0.0000
-0.3010 REPORT </s> -0.3010
-0.3010 SCREEN </s> -0.3010
-0.3010 SEARCH FIND 0.0000
-0.3010 SEVEN EIGHT 0.0000
-0.3010 SHUTDOWN </s> -0.3010
-0.3010 SIGN OUT 0.0000
-0.3010 SING A -0.2041
-0.3010 SIX SEVEN 0.0000
-0.3010 SLEEP </s> -0.3010
-0.3010 SOCIAL </s> -0.3010
-0.4771 SONG FOR -0.0969
-0.7782 SONG IS -0.1761
-0.3010 SRILANKA </s> -0.3010
-0.3010 START TYPING 0.0000
-0.3010 STOP </s> -0.3010
-0.3010 SUBLIME TEXT 0.0000
-0.6021 SYSTEM HIBERNATE 0.0000
-0.6021 SYSTEM SIGN 0.0000
-0.3010 TAKE A -0.2553
-0.3010 TELL ME -0.2218
-0.3010 TEN ZERO 0.0000
-0.3010 TEXT </s> -0.3010
-0.3010 THE </s> -0.3010
-0.3010 THIS </s> -0.3010
-0.3010 THREE FOUR 0.0000
-0.6021 TIME </s> -0.3010
-0.6021 TIME PLEASE 0.0000
-0.6021 TO </s> -0.3010
-0.6021 TO THE 0.0000
-0.3010 TONY </s> -0.3010
-0.3010 TRACK </s> -0.3010
-0.3010 TWENTY ONE 0.0000
-0.3010 TWO </s> -0.3010
-0.3010 TYPING </s> -0.3010
-0.4260 UP </s> -0.3010
-0.9031 UP ALLAN -0.1761
-0.3010 VLC PLAYER 0.0000
-0.6021 VOLUME DOWN -0.1249
-0.6021 VOLUME UP -0.0969
-0.3010 WAKE UP -0.2430
-0.3010 WALKER </s> -0.3010
-0.3010 WEATHER REPORT 0.0000
-0.3010 WHAT IS -0.2632
-0.3010 WISH ME -0.2632
-0.3010 WRITE DOWN -0.2218
-0.3010 YEARS OLD 0.0000
-0.3010 YES </s> -0.3010
-0.3010 YOU </s> -0.3010
-0.3010 YOUTUBE </s> -0.3010
-0.3010 ZERO </s> -0.3010

\3-grams:
-0.3010 <s> ACTIVATE </s>
-0.3010 <s> AFTERNOON </s>
-0.9031 <s> ALLAN </s>
-0.9031 <s> ALLAN I
-0.9031 <s> ALLAN I'M
-0.9031 <s> ALLAN TAKE
-0.3010 <s> AVENGERS </s>
-0.3010 <s> BACKWARD </s>
-0.3010 <s> CLOSE </s>
-0.3010 <s> CREATE </s>
-0.3010 <s> DADDY IS
-0.3010 <s> ENDGAME </s>
-0.3010 <s> ENOUGH </s>
-0.3010 <s> ERASE </s>
-0.3010 <s> EVENING </s>
-0.3010 <s> EXIT FULLSCREEN
-0.3010 <s> FAST FORWARD
-0.3010 <s> FEMALE </s>
-0.6021 <s> FILE EXPLORER
-0.6021 <s> FILE MANAGER
-0.6021 <s> FILM FOLDER
-0.6021 <s> FILM IS
-0.3010 <s> FLASH </s>
-0.3010 <s> FOR </s>
-0.3010 <s> FORWARD </s>
-0.7782 <s> GO BACK
-0.7782 <s> GO DOWN
-0.7782 <s> GO UP
-0.3010 <s> GOOD </s>
-0.3010 <s> HARRY POTTER
-0.3010 <s> HELLO ALLAN
-0.3010 <s> HEY </s>
-0.3010 <s> HOW TO
-0.3010 <s> I AM
-0.3010 <s> I'M BOORING
-0.7782 <s> IN COLOMBO
-0.7782 <s> IN GALLE
-0.7782 <s> IN SRILANKA
-0.3010 <s> INNA </s>
-0.3010 <s> JARVIS </s>
-0.3010 <s> KNOWLEDGE </s>
-0.3010 <s> LOCAL DISK
-0.3010 <s> MALE </s>
-0.3010 <s> MARVEL MOVIES
-0.3010 <s> MEDIA </s>
-0.3010 <s> MORNING </s>
-0.3010 <s> MOVIE IS
-0.3010 <s> MUSIC </s>
-0.3010 <s> MY COMPUTER
-0.3010 <s> NAME IS
-0.3010 <s> NEW PROJECT
-0.6021 <s> NEXT </s>
-0.6021 <s> NEXT LINE
-0.3010 <s> NIGHT </s>
-0.6021 <s> NO </s>
-0.6021 <s> NO NO
-0.3010 <s> NORMAL SCREEN
-0.3010 <s> NOTE THIS
-0.3010 <s> NOTEPAD </s>
-0.9031 <s> OPEN BROWSER
-0.9031 <s> OPEN INTELLIJ
-0.9031 <s> OPEN MY
-0.9031 <s> OPEN SUBLIME
-0.3010 <s> PARTY MODE
-0.3010 <s> PAUSE </s>
-0.3010 <s> PHOTOSHOP </s>
-0.7782 <s> PLAY </s>
-0.4771 <s> PLAY A
-0.3010 <s> PROJECT </s>
-0.3010 <s> PUT ON
-0.3010 <s> SEARCH FIND
-0.3010 <s> SHUTDOWN </s>
-0.3010 <s> SING A
-0.3010 <s> SLEEP </s>
-0.3010 <s> SOCIAL </s>
-0.3010 <s> SONG IS
-0.3010 <s> START TYPING
-0.3010 <s> STOP </s>
-0.6021 <s> SYSTEM HIBERNATE
-0.6021 <s> SYSTEM SIGN
-0.3010 <s> TELL ME
-0.3010 <s> THREE FOUR
-0.3010 <s> TIME PLEASE
-0.3010 <s> TO THE
-0.3010 <s> TONY </s>
-0.3010 <s> TRACK </s>
-0.3010 <s> TWENTY ONE
-0.3010 <s> TWO </s>
-0.3010 <s> UP </s>
-0.3010 <s> VLC PLAYER
-0.6021 <s> VOLUME DOWN
-0.6021 <s> VOLUME UP
-0.3010 <s> WAKE UP
-0.3010 <s> WALKER </s>
-0.3010 <s> WEATHER REPORT
-0.3010 <s> WHAT IS
-0.3010 <s> WISH ME
-0.3010 <s> WRITE DOWN
-0.3010 <s> YES </s>
-0.3010 <s> YOU </s>
-0.3010 <s> YOUTUBE </s>
-0.3010 A FILM FOR
-0.3010 A JOKE </s>
-0.3010 A PHOTO </s>
-0.3010 A SONG FOR
-0.3010 ALLAN I AM
-0.3010 ALLAN I'M BOORING
-0.3010 ALLAN TAKE A
-0.3010 AM BOORING </s>
-0.3010 AM IRON MAN
-0.3010 AM YEARS OLD
-0.3010 DADDY IS HOME
-0.3010 DISK F </s>
-0.3010 DOWN THIS </s>
-0.3010 EIGHT NINE TEN
-0.3010 EXIT FULLSCREEN </s>
-0.3010 FAST FORWARD </s>
-0.3010 FILE EXPLORER </s>
-0.3010 FILE MANAGER </s>
-0.3010 FILM FOLDER </s>
-0.3010 FILM FOR ME
-0.3010 FILM IS BETTER
-0.3010 FIVE SIX SEVEN
-0.3010 FOR ME </s>
-0.3010 FOUR FIVE SIX
-0.3010 GO BACK </s>
-0.3010 GO DOWN </s>
-0.3010 GO UP </s>
-0.3010 HARRY POTTER </s>
-0.3010 HELLO ALLAN </s>
-0.3010 HOW TO </s>
-0.6021 I AM BOORING
-0.9031 I AM IRON
-0.9031 I AM YEARS
-0.3010 I'M BOORING </s>
-0.3010 IN COLOMBO </s>
-0.3010 IN GALLE </s>
-0.3010 IN SRILANKA </s>
-0.3010 IRON MAN </s>
-0.3010 IS BETTER </s>
-0.3010 IS HOME </s>
-0.3010 IS KAVEEN </s>
-0.3010 LOCAL DISK F
-0.3010 MARVEL MOVIES </s>
-0.3010 ME A JOKE
-0.3010 ME LUCK </s>
-0.3010 ME TIME </s>
-0.3010 MOVIE IS BETTER
-0.3010 MY COMPUTER </s>
-0.3010 NAME IS KAVEEN
-0.3010 NEW PROJECT </s>
-0.3010 NEXT LINE </s>
-0.3010 NINE TEN ZERO
-0.3010 NO ERASE </s>
-0.3010 NO NO ERASE
-0.3010 NORMAL SCREEN </s>
-0.3010 NOTE THIS </s>
-0.3010 ON FULLSCREEN </s>
-0.3010 OPEN BROWSER </s>
-0.3010 OPEN INTELLIJ </s>
-0.3010 OPEN MY COMPUTER
-0.3010 OPEN SUBLIME TEXT
-0.3010 PARTY MODE </s>
-0.6021 PLAY A FILM
-0.6021 PLAY A SONG
-0.3010 PUT ON FULLSCREEN
-0.3010 SEARCH FIND </s>
-0.3010 SEVEN EIGHT NINE
-0.3010 SIGN OUT </s>
-0.3010 SING A SONG
-0.3010 SIX SEVEN EIGHT
-0.3010 SONG FOR ME
-0.3010 SONG IS BETTER
-0.3010 START TYPING </s>
-0.3010 SUBLIME TEXT </s>
-0.3010 SYSTEM HIBERNATE </s>
-0.3010 SYSTEM SIGN OUT
-0.3010 TAKE A PHOTO
-0.6021 TELL ME A
-0.6021 TELL ME TIME
-0.3010 TEN ZERO </s>
-0.3010 THREE FOUR FIVE
-0.3010 TIME PLEASE </s>
-0.3010 TO THE </s>
-0.3010 TWENTY ONE </s>
-0.3010 UP ALLAN </s>
-0.3010 VLC PLAYER </s>
-0.3010 VOLUME DOWN </s>
-0.3010 VOLUME UP </s>
-0.3010 WAKE UP ALLAN
-0.3010 WEATHER REPORT </s>
-0.3010 WHAT IS </s>
-0.3010 WISH ME LUCK
-0.3010 WRITE DOWN THIS
-0.3010 YEARS OLD </s>

\end\
