Language model created by QuickLM on Tue May  7 10:16:53 EDT 2019
Copyright (c) 1996-2010 Carnegie Mellon University and Alexander I. Rudnicky

The model is in standard ARPA format, designed by Doug Paul while he was at MITRE.

The code that was used to produce this language model is available in Open Source.
Please visit http://www.speech.cs.cmu.edu/tools/ for more information

The (fixed) discount mass is 0.5. The backoffs are computed using the ratio method.
This model based on a corpus of 91 sentences and 132 words

\data\
ngram 1=132
ngram 2=230
ngram 3=161

\1-grams:
-0.8811 </s> -0.3010
-0.8811 <s> -0.2318
-2.5391 A -0.2998
-2.8401 ACTIVATE -0.2398
-2.8401 AFTERNOON -0.2398
-2.5391 ALLAN -0.2398
-2.5391 AM -0.2998
-2.8401 AVENGERS -0.2398
-2.8401 BACK -0.2398
-2.8401 BACKWARD -0.2398
-2.8401 BROWSER -0.2398
-2.8401 CLOSE -0.2398
-2.8401 COLOMBO -0.2398
-2.5391 COMPUTER -0.2398
-2.8401 CREATE -0.2398
-2.8401 DISK -0.3004
-2.3630 DOWN -0.2384
-2.8401 EIGHT -0.3004
-2.8401 ENDGAME -0.2398
-2.8401 ENOUGH -0.2398
-2.5391 ERASE -0.2398
-2.8401 EVENING -0.2398
-2.8401 EXIT -0.2998
-2.8401 EXPLORER -0.2398
-2.8401 F -0.2398
-2.8401 FAST -0.2998
-2.8401 FEMALE -0.2398
-2.5391 FILE -0.2998
-2.8401 FILM -0.3004
-2.8401 FIND -0.2398
-2.8401 FIVE -0.3004
-2.8401 FLASH -0.2398
-2.8401 FOLDER -0.2398
-2.5391 FOR -0.2369
-2.5391 FORWARD -0.2398
-2.8401 FOUR -0.3004
-2.5391 FULLSCREEN -0.2398
-2.8401 GALLE -0.2398
-2.3630 GO -0.2966
-2.8401 GOOD -0.2398
-2.8401 HARRY -0.3004
-2.8401 HELLO -0.2998
-2.8401 HEY -0.2398
-2.8401 HIBERNATE -0.2398
-2.8401 HOW -0.2998
-2.5391 I -0.2998
-2.3630 IN -0.2991
-2.8401 INNA -0.2398
-2.8401 IRON -0.3004
-2.5391 IS -0.2391
-2.8401 JARVIS -0.2398
-2.8401 JOKE -0.2398
-2.8401 KAVEEN -0.2398
-2.8401 KNOWLEDGE -0.2398
-2.8401 LINE -0.2398
-2.8401 LOCAL -0.3004
-2.8401 LUCK -0.2398
-2.8401 MALE -0.2398
-2.8401 MAN -0.2398
-2.8401 MANAGER -0.2398
-2.8401 MARVEL -0.3004
-2.2380 ME -0.2362
-2.8401 MEDIA -0.2398
-2.8401 MODE -0.2398
-2.8401 MORNING -0.2398
-2.8401 MOVIES -0.2398
-2.8401 MUSIC -0.2398
-2.5391 MY -0.2998
-2.8401 NAME -0.2998
-2.8401 NEW -0.2998
-2.5391 NEXT -0.2391
-2.8401 NIGHT -0.2398
-2.8401 NINE -0.3004
-2.3630 NO -0.2362
-2.8401 NORMAL -0.3004
-2.8401 NOTE -0.2998
-2.8401 NOTEPAD -0.2398
-2.8401 OLD -0.2398
-2.8401 ON -0.2998
-2.8401 ONE -0.2398
-2.5391 OPEN -0.2991
-2.8401 OUT -0.2398
-2.8401 PARTY -0.3004
-2.8401 PAUSE -0.2398
-2.8401 PHOTOSHOP -0.2398
-2.8401 PLAY -0.2398
-2.8401 PLAYER -0.2398
-2.8401 PLEASE -0.2398
-2.8401 POTTER -0.2398
-2.5391 PROJECT -0.2398
-2.8401 PUT -0.3004
-2.8401 REPORT -0.2398
-2.8401 SCREEN -0.2398
-2.8401 SEARCH -0.3004
-2.8401 SEVEN -0.3004
-2.8401 SHUTDOWN -0.2398
-2.8401 SIGN -0.3004
-2.8401 SING -0.2998
-2.8401 SIX -0.3004
-2.8401 SLEEP -0.2398
-2.8401 SOCIAL -0.2398
-2.8401 SONG -0.2998
-2.8401 SRILANKA -0.2398
-2.8401 STARK -0.2398
-2.8401 START -0.3004
-2.8401 STOP -0.2398
-2.5391 SYSTEM -0.2998
-2.5391 TELL -0.2985
-2.8401 TEN -0.3004
-2.8401 THE -0.2398
-2.5391 THIS -0.2398
-2.8401 THREE -0.3004
-2.5391 TIME -0.2391
-2.5391 TO -0.2391
-2.8401 TONY -0.3004
-2.8401 TRACK -0.2398
-2.8401 TWENTY -0.3004
-2.8401 TWO -0.2398
-2.8401 TYPING -0.2398
-2.3630 UP -0.2398
-2.8401 VLC -0.3004
-2.5391 VOLUME -0.2972
-2.8401 WALKER -0.2398
-2.8401 WEATHER -0.3004
-2.8401 WHAT -0.2998
-2.8401 WISH -0.2985
-2.8401 WRITE -0.2991
-2.8401 YEARS -0.3004
-2.8401 YES -0.2398
-2.8401 YOU -0.2398
-2.8401 YOUTUBE -0.2398
-2.8401 ZERO -0.2398

\2-grams:
-2.2601 <s> ACTIVATE 0.0000
-2.2601 <s> AFTERNOON 0.0000
-2.2601 <s> ALLAN 0.0000
-2.2601 <s> AVENGERS 0.0000
-2.2601 <s> BACKWARD 0.0000
-2.2601 <s> CLOSE 0.0000
-2.2601 <s> CREATE 0.0000
-2.2601 <s> ENDGAME 0.0000
-2.2601 <s> ENOUGH 0.0000
-2.2601 <s> ERASE 0.0000
-2.2601 <s> EVENING 0.0000
-2.2601 <s> EXIT 0.0000
-2.2601 <s> FAST 0.0000
-2.2601 <s> FEMALE 0.0000
-1.9590 <s> FILE 0.0000
-2.2601 <s> FILM 0.0000
-2.2601 <s> FLASH 0.0000
-2.2601 <s> FOR -0.1761
-2.2601 <s> FORWARD 0.0000
-1.7830 <s> GO 0.0000
-2.2601 <s> GOOD 0.0000
-2.2601 <s> HARRY 0.0000
-2.2601 <s> HELLO 0.0000
-2.2601 <s> HEY 0.0000
-2.2601 <s> HOW 0.0000
-1.9590 <s> I 0.0000
-1.7830 <s> IN 0.0000
-2.2601 <s> INNA 0.0000
-2.2601 <s> JARVIS 0.0000
-2.2601 <s> KNOWLEDGE 0.0000
-2.2601 <s> LOCAL 0.0000
-2.2601 <s> MALE 0.0000
-2.2601 <s> MARVEL 0.0000
-2.2601 <s> MEDIA 0.0000
-2.2601 <s> MORNING 0.0000
-2.2601 <s> MUSIC 0.0000
-2.2601 <s> MY 0.0000
-2.2601 <s> NAME 0.0000
-2.2601 <s> NEW 0.0000
-1.9590 <s> NEXT 0.0000
-2.2601 <s> NIGHT 0.0000
-1.9590 <s> NO -0.1249
-2.2601 <s> NORMAL 0.0000
-2.2601 <s> NOTE 0.0000
-2.2601 <s> NOTEPAD 0.0000
-1.9590 <s> OPEN 0.0000
-2.2601 <s> PARTY 0.0000
-2.2601 <s> PAUSE 0.0000
-2.2601 <s> PHOTOSHOP 0.0000
-2.2601 <s> PLAY 0.0000
-2.2601 <s> PROJECT 0.0000
-2.2601 <s> PUT 0.0000
-2.2601 <s> SEARCH 0.0000
-2.2601 <s> SHUTDOWN 0.0000
-2.2601 <s> SING 0.0000
-2.2601 <s> SLEEP 0.0000
-2.2601 <s> SOCIAL 0.0000
-2.2601 <s> START 0.0000
-2.2601 <s> STOP 0.0000
-1.9590 <s> SYSTEM 0.0000
-1.9590 <s> TELL 0.0000
-2.2601 <s> THREE 0.0000
-2.2601 <s> TIME -0.1761
-2.2601 <s> TO -0.1761
-2.2601 <s> TONY 0.0000
-2.2601 <s> TRACK 0.0000
-2.2601 <s> TWENTY 0.0000
-2.2601 <s> TWO 0.0000
-2.2601 <s> UP 0.0000
-2.2601 <s> VLC 0.0000
-1.9590 <s> VOLUME 0.0000
-2.2601 <s> WALKER 0.0000
-2.2601 <s> WEATHER 0.0000
-2.2601 <s> WHAT 0.0000
-2.2601 <s> WISH 0.0000
-2.2601 <s> WRITE 0.0000
-2.2601 <s> YES 0.0000
-2.2601 <s> YOU 0.0000
-2.2601 <s> YOUTUBE 0.0000
-0.6021 A JOKE 0.0000
-0.6021 A SONG 0.0000
-0.3010 ACTIVATE </s> -0.3010
-0.3010 AFTERNOON </s> -0.3010
-0.3010 ALLAN </s> -0.3010
-0.6021 AM IRON 0.0000
-0.6021 AM YEARS 0.0000
-0.3010 AVENGERS </s> -0.3010
-0.3010 BACK </s> -0.3010
-0.3010 BACKWARD </s> -0.3010
-0.3010 BROWSER </s> -0.3010
-0.3010 CLOSE </s> -0.3010
-0.3010 COLOMBO </s> -0.3010
-0.3010 COMPUTER </s> -0.3010
-0.3010 CREATE </s> -0.3010
-0.3010 DISK F 0.0000
-0.4771 DOWN </s> -0.3010
-0.7782 DOWN THIS 0.0000
-0.3010 EIGHT NINE 0.0000
-0.3010 ENDGAME </s> -0.3010
-0.3010 ENOUGH </s> -0.3010
-0.3010 ERASE </s> -0.3010
-0.3010 EVENING </s> -0.3010
-0.3010 EXIT FULLSCREEN 0.0000
-0.3010 EXPLORER </s> -0.3010
-0.3010 F </s> -0.3010
-0.3010 FAST FORWARD 0.0000
-0.3010 FEMALE </s> -0.3010
-0.6021 FILE EXPLORER 0.0000
-0.6021 FILE MANAGER 0.0000
-0.3010 FILM FOLDER 0.0000
-0.3010 FIND </s> -0.3010
-0.3010 FIVE SIX 0.0000
-0.3010 FLASH </s> -0.3010
-0.3010 FOLDER </s> -0.3010
-0.6021 FOR </s> -0.3010
-0.6021 FOR ME -0.2430
-0.3010 FORWARD </s> -0.3010
-0.3010 FOUR FIVE 0.0000
-0.3010 FULLSCREEN </s> -0.3010
-0.3010 GALLE </s> -0.3010
-0.7782 GO BACK 0.0000
-0.7782 GO DOWN -0.1249
-0.7782 GO UP 0.0000
-0.3010 GOOD </s> -0.3010
-0.3010 HARRY POTTER 0.0000
-0.3010 HELLO ALLAN 0.0000
-0.3010 HEY </s> -0.3010
-0.3010 HIBERNATE </s> -0.3010
-0.3010 HOW TO -0.1761
-0.3010 I AM 0.0000
-0.7782 IN COLOMBO 0.0000
-0.7782 IN GALLE 0.0000
-0.7782 IN SRILANKA 0.0000
-0.3010 INNA </s> -0.3010
-0.3010 IRON MAN 0.0000
-0.6021 IS </s> -0.3010
-0.6021 IS KAVEEN 0.0000
-0.3010 JARVIS </s> -0.3010
-0.3010 JOKE </s> -0.3010
-0.3010 KAVEEN </s> -0.3010
-0.3010 KNOWLEDGE </s> -0.3010
-0.3010 LINE </s> -0.3010
-0.3010 LOCAL DISK 0.0000
-0.3010 LUCK </s> -0.3010
-0.3010 MALE </s> -0.3010
-0.3010 MAN </s> -0.3010
-0.3010 MANAGER </s> -0.3010
-0.3010 MARVEL MOVIES 0.0000
-0.9031 ME </s> -0.3010
-0.9031 ME A -0.1761
-0.9031 ME LUCK 0.0000
-0.9031 ME TIME -0.1761
-0.3010 MEDIA </s> -0.3010
-0.3010 MODE </s> -0.3010
-0.3010 MORNING </s> -0.3010
-0.3010 MOVIES </s> -0.3010
-0.3010 MUSIC </s> -0.3010
-0.3010 MY COMPUTER 0.0000
-0.3010 NAME IS -0.1761
-0.3010 NEW PROJECT 0.0000
-0.6021 NEXT </s> -0.3010
-0.6021 NEXT LINE 0.0000
-0.3010 NIGHT </s> -0.3010
-0.3010 NINE TEN 0.0000
-0.7782 NO </s> -0.3010
-0.7782 NO ERASE 0.0000
-0.7782 NO NO -0.2218
-0.3010 NORMAL SCREEN 0.0000
-0.3010 NOTE THIS 0.0000
-0.3010 NOTEPAD </s> -0.3010
-0.3010 OLD </s> -0.3010
-0.3010 ON FULLSCREEN 0.0000
-0.3010 ONE </s> -0.3010
-0.6021 OPEN BROWSER 0.0000
-0.6021 OPEN MY 0.0000
-0.3010 OUT </s> -0.3010
-0.3010 PARTY MODE 0.0000
-0.3010 PAUSE </s> -0.3010
-0.3010 PHOTOSHOP </s> -0.3010
-0.3010 PLAY </s> -0.3010
-0.3010 PLAYER </s> -0.3010
-0.3010 PLEASE </s> -0.3010
-0.3010 POTTER </s> -0.3010
-0.3010 PROJECT </s> -0.3010
-0.3010 PUT ON 0.0000
-0.3010 REPORT </s> -0.3010
-0.3010 SCREEN </s> -0.3010
-0.3010 SEARCH FIND 0.0000
-0.3010 SEVEN EIGHT 0.0000
-0.3010 SHUTDOWN </s> -0.3010
-0.3010 SIGN OUT 0.0000
-0.3010 SING A -0.1761
-0.3010 SIX SEVEN 0.0000
-0.3010 SLEEP </s> -0.3010
-0.3010 SOCIAL </s> -0.3010
-0.3010 SONG FOR -0.1761
-0.3010 SRILANKA </s> -0.3010
-0.3010 STARK </s> -0.3010
-0.3010 START TYPING 0.0000
-0.3010 STOP </s> -0.3010
-0.6021 SYSTEM HIBERNATE 0.0000
-0.6021 SYSTEM SIGN 0.0000
-0.3010 TELL ME -0.1761
-0.3010 TEN ZERO 0.0000
-0.3010 THE </s> -0.3010
-0.3010 THIS </s> -0.3010
-0.3010 THREE FOUR 0.0000
-0.6021 TIME </s> -0.3010
-0.6021 TIME PLEASE 0.0000
-0.6021 TO </s> -0.3010
-0.6021 TO THE 0.0000
-0.3010 TONY STARK 0.0000
-0.3010 TRACK </s> -0.3010
-0.3010 TWENTY ONE 0.0000
-0.3010 TWO </s> -0.3010
-0.3010 TYPING </s> -0.3010
-0.3010 UP </s> -0.3010
-0.3010 VLC PLAYER 0.0000
-0.6021 VOLUME DOWN -0.1249
-0.6021 VOLUME UP 0.0000
-0.3010 WALKER </s> -0.3010
-0.3010 WEATHER REPORT 0.0000
-0.3010 WHAT IS -0.1761
-0.3010 WISH ME -0.2430
-0.3010 WRITE DOWN -0.2218
-0.3010 YEARS OLD 0.0000
-0.3010 YES </s> -0.3010
-0.3010 YOU </s> -0.3010
-0.3010 YOUTUBE </s> -0.3010
-0.3010 ZERO </s> -0.3010

\3-grams:
-0.3010 <s> ACTIVATE </s>
-0.3010 <s> AFTERNOON </s>
-0.3010 <s> ALLAN </s>
-0.3010 <s> AVENGERS </s>
-0.3010 <s> BACKWARD </s>
-0.3010 <s> CLOSE </s>
-0.3010 <s> CREATE </s>
-0.3010 <s> ENDGAME </s>
-0.3010 <s> ENOUGH </s>
-0.3010 <s> ERASE </s>
-0.3010 <s> EVENING </s>
-0.3010 <s> EXIT FULLSCREEN
-0.3010 <s> FAST FORWARD
-0.3010 <s> FEMALE </s>
-0.6021 <s> FILE EXPLORER
-0.6021 <s> FILE MANAGER
-0.3010 <s> FILM FOLDER
-0.3010 <s> FLASH </s>
-0.3010 <s> FOR </s>
-0.3010 <s> FORWARD </s>
-0.7782 <s> GO BACK
-0.7782 <s> GO DOWN
-0.7782 <s> GO UP
-0.3010 <s> GOOD </s>
-0.3010 <s> HARRY POTTER
-0.3010 <s> HELLO ALLAN
-0.3010 <s> HEY </s>
-0.3010 <s> HOW TO
-0.3010 <s> I AM
-0.7782 <s> IN COLOMBO
-0.7782 <s> IN GALLE
-0.7782 <s> IN SRILANKA
-0.3010 <s> INNA </s>
-0.3010 <s> JARVIS </s>
-0.3010 <s> KNOWLEDGE </s>
-0.3010 <s> LOCAL DISK
-0.3010 <s> MALE </s>
-0.3010 <s> MARVEL MOVIES
-0.3010 <s> MEDIA </s>
-0.3010 <s> MORNING </s>
-0.3010 <s> MUSIC </s>
-0.3010 <s> MY COMPUTER
-0.3010 <s> NAME IS
-0.3010 <s> NEW PROJECT
-0.6021 <s> NEXT </s>
-0.6021 <s> NEXT LINE
-0.3010 <s> NIGHT </s>
-0.6021 <s> NO </s>
-0.6021 <s> NO NO
-0.3010 <s> NORMAL SCREEN
-0.3010 <s> NOTE THIS
-0.3010 <s> NOTEPAD </s>
-0.6021 <s> OPEN BROWSER
-0.6021 <s> OPEN MY
-0.3010 <s> PARTY MODE
-0.3010 <s> PAUSE </s>
-0.3010 <s> PHOTOSHOP </s>
-0.3010 <s> PLAY </s>
-0.3010 <s> PROJECT </s>
-0.3010 <s> PUT ON
-0.3010 <s> SEARCH FIND
-0.3010 <s> SHUTDOWN </s>
-0.3010 <s> SING A
-0.3010 <s> SLEEP </s>
-0.3010 <s> SOCIAL </s>
-0.3010 <s> START TYPING
-0.3010 <s> STOP </s>
-0.6021 <s> SYSTEM HIBERNATE
-0.6021 <s> SYSTEM SIGN
-0.3010 <s> TELL ME
-0.3010 <s> THREE FOUR
-0.3010 <s> TIME PLEASE
-0.3010 <s> TO THE
-0.3010 <s> TONY STARK
-0.3010 <s> TRACK </s>
-0.3010 <s> TWENTY ONE
-0.3010 <s> TWO </s>
-0.3010 <s> UP </s>
-0.3010 <s> VLC PLAYER
-0.6021 <s> VOLUME DOWN
-0.6021 <s> VOLUME UP
-0.3010 <s> WALKER </s>
-0.3010 <s> WEATHER REPORT
-0.3010 <s> WHAT IS
-0.3010 <s> WISH ME
-0.3010 <s> WRITE DOWN
-0.3010 <s> YES </s>
-0.3010 <s> YOU </s>
-0.3010 <s> YOUTUBE </s>
-0.3010 A JOKE </s>
-0.3010 A SONG FOR
-0.3010 AM IRON MAN
-0.3010 AM YEARS OLD
-0.3010 DISK F </s>
-0.3010 DOWN THIS </s>
-0.3010 EIGHT NINE TEN
-0.3010 EXIT FULLSCREEN </s>
-0.3010 FAST FORWARD </s>
-0.3010 FILE EXPLORER </s>
-0.3010 FILE MANAGER </s>
-0.3010 FILM FOLDER </s>
-0.3010 FIVE SIX SEVEN
-0.3010 FOR ME </s>
-0.3010 FOUR FIVE SIX
-0.3010 GO BACK </s>
-0.3010 GO DOWN </s>
-0.3010 GO UP </s>
-0.3010 HARRY POTTER </s>
-0.3010 HELLO ALLAN </s>
-0.3010 HOW TO </s>
-0.6021 I AM IRON
-0.6021 I AM YEARS
-0.3010 IN COLOMBO </s>
-0.3010 IN GALLE </s>
-0.3010 IN SRILANKA </s>
-0.3010 IRON MAN </s>
-0.3010 IS KAVEEN </s>
-0.3010 LOCAL DISK F
-0.3010 MARVEL MOVIES </s>
-0.3010 ME A JOKE
-0.3010 ME LUCK </s>
-0.3010 ME TIME </s>
-0.3010 MY COMPUTER </s>
-0.3010 NAME IS KAVEEN
-0.3010 NEW PROJECT </s>
-0.3010 NEXT LINE </s>
-0.3010 NINE TEN ZERO
-0.3010 NO ERASE </s>
-0.3010 NO NO ERASE
-0.3010 NORMAL SCREEN </s>
-0.3010 NOTE THIS </s>
-0.3010 ON FULLSCREEN </s>
-0.3010 OPEN BROWSER </s>
-0.3010 OPEN MY COMPUTER
-0.3010 PARTY MODE </s>
-0.3010 PUT ON FULLSCREEN
-0.3010 SEARCH FIND </s>
-0.3010 SEVEN EIGHT NINE
-0.3010 SIGN OUT </s>
-0.3010 SING A SONG
-0.3010 SIX SEVEN EIGHT
-0.3010 SONG FOR ME
-0.3010 START TYPING </s>
-0.3010 SYSTEM HIBERNATE </s>
-0.3010 SYSTEM SIGN OUT
-0.6021 TELL ME A
-0.6021 TELL ME TIME
-0.3010 TEN ZERO </s>
-0.3010 THREE FOUR FIVE
-0.3010 TIME PLEASE </s>
-0.3010 TO THE </s>
-0.3010 TONY STARK </s>
-0.3010 TWENTY ONE </s>
-0.3010 VLC PLAYER </s>
-0.3010 VOLUME DOWN </s>
-0.3010 VOLUME UP </s>
-0.3010 WEATHER REPORT </s>
-0.3010 WHAT IS </s>
-0.3010 WISH ME LUCK
-0.3010 WRITE DOWN THIS
-0.3010 YEARS OLD </s>

\end\
